solver_type L2R_L2LOSS_SVC_DUAL
nr_class 2
label 1 -1
nr_feature 3999
bias -1
w
-0.0001193110430427078 
0.0001411485118998903 
-0.001046342926437424 
0 
0 
0 
0 
0 
0.001932978847153286 
-0.003183377413542693 
0 
0 
0 
0 
0.001300840766242729 
0.01926210617733124 
-0.001652610786113801 
0.001101645627527105 
0 
0.0009161999854454066 
0 
-0.002710198935803494 
0 
0.0005075679196345912 
0 
0.000625305891069601 
0 
-0.00472022147462531 
0 
0 
0 
0.002805269819952897 
0.01027617990126959 
-0.001070999555501431 
-0.002817558231492613 
-0.00211392598970801 
-0.003907819395508204 
0.001084548090928877 
0 
-0.002117012232950417 
0.001300840766242729 
0 
-0.004791917553859201 
0.000169943913508324 
-0.004659026954499089 
0 
0 
0 
-0.01255394180782857 
-0.0006577799189419336 
0 
0 
0 
-0.001046342926437424 
0 
-0.00231408092558582 
-0.0006356833010813982 
0.004732129855356064 
0 
-0.00090775161058205 
-0.001731237485137234 
0.001007431256573809 
0.0007745248328020035 
-0.0009941542937700592 
-0.00126426072907136 
-0.00126426072907136 
0.007934915448670612 
0 
0 
-0.0006356833010813982 
-0.001601203664622041 
0.004314241458766696 
0 
0 
0 
0 
0.000425007277664667 
0 
0 
-0.0009856541033963955 
-0.001307684317616491 
-0.001601203664622041 
-0.002134944686705087 
0 
0 
0 
0 
0 
0 
0 
-0.0005798220603967011 
0 
-0.003192576396500357 
-0.0006805237443873441 
-0.002025910623204249 
-0.01036898304404928 
-0.0006356833010813982 
0 
-0.001743834250841483 
0.0008933225183675074 
-0.0005387750068028329 
-0.002852609017988019 
0 
-0.004199577277739237 
0.001205127951466302 
0 
0 
0.0004144017658889474 
0 
0 
0 
0 
0.001205127951466302 
-0.001437408011458181 
0.0004666672870944452 
0 
0 
-0.00231408092558582 
0 
0 
0 
-0.008672299535649955 
0.0003516216590657938 
0 
-0.001042355714163684 
-0.004053668996680864 
0 
0 
-0.0002037017298374664 
-0.0007451831985444081 
-0.001519485191883969 
0 
0 
0 
-0.0006356833010813982 
0.001684536606311921 
0 
-0.007955222000810346 
-0.006901796430609765 
0 
0 
0 
0 
0.001582129730194587 
0 
-0.002146233470062933 
0 
0 
-0.0005798220603967011 
-0.005958633446584961 
0 
-0.005271448910447883 
0.01027617990126959 
0.007782141338945665 
0.001342860239776542 
-0.0003580335260087635 
0.001164154757469124 
0 
0.008818005473187333 
0 
0.0008390788965475843 
0 
0.003420879564269086 
0 
0 
-0.008246435358610483 
-0.000515793279440846 
0 
0 
-0.0024013810130558 
0 
0 
-0.01255394180782857 
0 
0 
0 
-0.005544050045913533 
-0.003895188989043363 
0 
0.002299387303110035 
-0.0005798220603967011 
-0.001437408011458181 
0.001118688043248573 
-0.01340111122505155 
0 
-0.00231408092558582 
-0.0005400563309467117 
0 
0 
0 
0.001330897564361734 
2.747288745680369e-05 
0.000680100160965104 
0 
-0.0006356833010813982 
-0.003045651884226264 
-0.001601203664622041 
0 
0 
0 
0 
-0.006757674542989638 
-0.001565476163793097 
0 
0.001886721008217344 
-0.002190810969515491 
0 
-0.001899679159696873 
0.001803398557737294 
0 
-0.0005798220603967011 
0 
0 
0 
-0.005310429937979452 
0.002482679744157848 
-0.01249963716004938 
0.001146457728509777 
0.001472288599014702 
-1.813080991676288e-05 
0 
0.001750334506492794 
0 
0 
0.001217869319217476 
-0.002146233470062933 
0 
0 
-0.008625633389143079 
0 
0 
-0.001144666352966281 
0.0008933225183675074 
0.0009295518347548492 
-0.001699692757911683 
-0.0004092609244402098 
-0.002146233470062933 
0.01926210617733124 
0 
0 
0 
-0.003528347572349579 
0 
-0.0004092609244402098 
0 
0.001750334506492794 
0 
-0.002599087295284023 
-0.007643691809191444 
-0.005780607740953477 
-0.0007573078504930768 
-0.006061886400770197 
0 
-0.003819060714624091 
0 
0 
0 
2.710505431213761e-20 
-0.003385080481087251 
0 
-0.001601203664622041 
0 
0 
0.002780259643432806 
0 
0 
-0.001144666352966281 
0 
-0.0004324925377351991 
0.001000085906825991 
0.004661297683851837 
0.01758104135251339 
0 
0 
0.01000994821336917 
0 
0 
-0.0005525213019060643 
0 
0 
0 
-0.001916229294815517 
0.005320243886316416 
-0.0002989930136881098 
0 
0.0007932077162951549 
0 
-1.968345413988081e-05 
0 
0 
-0.004328043766508973 
-0.0001630179646502096 
0 
0 
0 
0 
-0.002723341850026029 
-0.0009820787125938092 
0 
-0.001601203664622041 
-0.002363972553091428 
-0.001930144817239995 
-0.001345810462239145 
-0.0008838018908025705 
6.666206302358005e-05 
-0.00126426072907136 
0.007774079875169262 
0 
-0.0005400563309467117 
0 
0 
0 
0 
0.001217869319217476 
-0.001437408011458181 
0 
0 
-0.004922900143267018 
0 
0 
-0.0005525213019060643 
-0.0004131260492411838 
0 
0 
0 
0.001526756508635101 
-0.0005178363548566644 
0 
-0.006167009130508086 
-0.0007244419819655131 
0 
0 
0.002749696806484947 
-0.007050042925085286 
0 
0 
0 
0 
-0.007478595262543446 
-0.001533405948977752 
0 
-0.001437408011458181 
-0.003818393495409174 
-0.004459846103779529 
-0.005030488924297854 
-0.002146233470062933 
-0.0006453829435430099 
-0.001097658415253365 
0 
0.0004666672870944452 
0 
0 
-0.003029169178998902 
0.003891345842045103 
0 
0 
0 
-0.0004092609244402098 
-0.00126426072907136 
0 
0 
0.00235158567997608 
0 
-0.0003591780736037193 
0.0002220035308959393 
-0.002048239211426402 
0 
0 
0 
0 
0.002212659482177503 
0 
0.0007034531590939607 
0 
-0.001046342926437424 
-0.0005714896808865064 
0 
-0.00013965319470009 
0.001146457728509777 
0 
-0.004889734673694327 
-0.00508332144369545 
0 
0 
0.00113782280159252 
-0.0007987012657316074 
0 
0 
-0.01335740123411045 
0.007026786404336445 
-0.002962566923144568 
-0.00329541507621503 
-0.0007244419819655131 
0.0004144017658889474 
-0.004387172238125397 
-0.001386543415818327 
0 
0 
-0.004889734673694327 
0 
0 
0 
0.003230011185601107 
0.002216072630764496 
-0.003038611676080222 
0 
0 
0 
0.001164154757469124 
-0.002406316402257564 
0 
-0.006402413685488662 
0.0005107744274283785 
0 
-0.00288838531284201 
0.0006931975734453953 
7.081884240941084e-05 
0 
0 
-0.01445362096752544 
0.01711104321639562 
-0.001238160250127083 
0 
0 
0 
0 
0.001101645627527105 
0.000783004411386065 
0 
-0.0007244419819655131 
0 
0 
-0.0001365672452154514 
0 
0.001472288599014702 
-0.003062430217794982 
0 
0 
0 
0 
0 
0.001305242753538655 
0 
-0.001046342926437424 
0 
0 
0.01027617990126959 
0 
0 
0 
0 
0.0005939364266037123 
0 
-0.001046342926437424 
0 
0 
0 
0 
0 
0 
0.003804296564618924 
-0.001437408011458181 
0 
0 
-0.001398386853013744 
0 
-0.0001178030005615839 
-0.001962021922259989 
0 
-0.002437962716065612 
0 
0 
-0.006304734659824512 
0 
0.001540147316045437 
-0.004157570798868675 
0 
0 
-0.001601203664622041 
0.01727889067191851 
0 
0.000551824258420526 
0 
-0.003319400109769864 
-0.0006356833010813982 
0 
0 
0 
-0.001078220031457418 
-0.001046342926437424 
-0.00165804209185412 
-0.004317094266045577 
-0.009314350083344644 
0 
0 
0 
0 
0.0007932077162951549 
0 
0 
0 
0 
0 
0.001205127951466302 
0 
0 
0 
0 
0 
-0.001601203664622041 
-0.0006356833010813982 
-0.001046342926437424 
-0.005544050045913533 
0 
0 
0 
-0.002723341850026029 
0 
0 
0 
0 
0.006975378609437658 
0.001765470546165129 
0.001781745788492209 
-0.0006660903969377605 
0.001164154757469124 
0 
0 
0 
0.001474490987429603 
-8.037720982381684e-05 
-0.004741124175393495 
0.002762126635830636 
0 
0.0007745248328020035 
-0.001930144817239995 
-0.007949426642402977 
-0.003625554179819499 
0 
0.008206549655631877 
-0.005936287639277057 
0 
0 
0.001060089221540656 
0 
0.002195952714142319 
-0.0004324925377351991 
0 
-0.004226827652215929 
-0.0005798220603967011 
-0.006462965671328607 
0.0005075679196345912 
-2.51651478408928e-05 
0 
0 
0 
-0.004889734673694327 
0 
0.000680100160965104 
6.666206302358005e-05 
-0.001601203664622041 
0 
-0.0004092609244402098 
0 
0 
0 
-0.0004423781818483191 
-0.0008838018908025704 
0 
0.0002736400179500059 
0 
0 
0 
-0.004397592317403755 
0 
0 
0 
0 
-0.005067079919849074 
-0.001097658415253365 
0 
-0.001437408011458181 
0.01027617990126959 
0 
0.001007431256573809 
0 
0 
0.001300840766242729 
0.00257064538382943 
-0.005271448910447883 
-0.001589460299457799 
0 
0 
0 
-0.00126426072907136 
0.001146457728509777 
0 
-0.009434231518426045 
-0.001078220031457418 
0.0007617851718308997 
-0.003735898715448756 
0.0003664084559567494 
0 
0 
-0.01112606734782604 
-0.0005178363548566644 
0 
-0.003255017701169295 
-0.005544050045913533 
0 
0.0009373005011892834 
0 
0.01606470028995819 
-0.0001630179646502096 
-0.005329610883605625 
-0.003183377413542693 
-0.00167352165351157 
0 
-0.006458172000687414 
-0.005404323032808124 
0 
-0.0001044191429422921 
-0.0005525213019060643 
0.003604894194798297 
-0.001376946412958159 
-0.004236337713462073 
0.0007889220138994322 
0.009148944240711828 
0 
0 
0 
0.001301509689331126 
-0.0004092609244402098 
0 
-0.005544050045913533 
0.001205127951466302 
-0.006959965427755098 
0.0009144994805228476 
0 
0.01597983768789134 
-0.00570286643062095 
0.001060089221540656 
0 
0 
-0.001172780853916265 
0 
0 
0 
0.004314241458766696 
0 
-0.0005178363548566644 
0 
0 
0 
0 
0 
-0.001078220031457418 
-0.003751488937044 
0 
0.001185074934947008 
-0.00117573963202811 
0 
0 
-0.0009356090910352163 
0 
0 
0.001164154757469124 
0 
0.001164154757469124 
0 
0.0002360110456661441 
0 
0.0004144017658889474 
0 
-0.002200339511390843 
-0.002387206600970174 
0.0003155399401853345 
0 
-0.00825069962610827 
0 
-0.006757674542989638 
0 
-0.001665916511144619 
0.0005003841244753671 
-0.0005640126378288215 
0 
0 
0 
0 
-0.004889734673694327 
0 
-0.001437408011458181 
0 
0.004769048952267421 
0 
0 
0.0004666672870944452 
0.0003796610894592224 
-0.00180971404790129 
0 
0.0005075679196345912 
0.008674976236647546 
0 
0.004732129855356064 
0 
-0.0009532291839815152 
0 
0 
0.001007431256573809 
0 
-0.001078220031457418 
0 
0.001164154757469124 
0 
0 
0.00172789762222353 
-0.0005798220603967011 
0 
0 
0 
0 
0 
0 
0.0002226207347853109 
0 
0 
-0.005986821639975221 
-0.002350617044479115 
-0.001988702711036873 
-0.01192076676624367 
0 
0 
0 
0.001340442088207209 
0 
-0.002025910623204249 
0.00146445560594003 
0 
-0.001601203664622041 
0.002623630197298254 
-0.00312135724628182 
-0.000635683301081398 
-0.001097658415253365 
0 
0 
-0.0008838018908025704 
0 
0 
0 
0.0007932077162951549 
0.003667732037922517 
-0.001046342926437424 
0 
-0.005584070971175187 
0 
-0.003455099620640327 
0 
0.0007889220138994322 
-0.0005525213019060643 
-0.005622121115036989 
0.002591467430622453 
-0.0037299973125242 
0 
0 
0 
-0.01006562071665995 
0 
0.001789525732956712 
0 
0 
0 
0 
0 
0 
-0.002146233470062933 
0 
0 
-0.001046342926437424 
0.01572394483530293 
-0.003845799228247333 
-0.001015392264913917 
0.0004666672870944452 
0.001007907695204148 
0.001300840766242729 
0 
0.001311633647886738 
0 
-0.0004190401762723852 
0.001885228112431406 
0.0007889220138994322 
-0.003882116244448328 
0 
0 
0.0007513162180656063 
-0.003754477342831017 
-0.004913416084788911 
-0.0064592476520099 
0 
0 
0.0003658191820500801 
0.0003099826229466552 
0 
0.003790502775648097 
0 
-0.0007987012657316074 
0 
0 
0 
0 
0 
0 
-0.002578984597131819 
0 
0 
0 
0 
0 
0.01027617990126959 
0 
0 
-0.0006805237443873441 
-0.0006805237443873441 
-0.0005400563309467117 
-4.98916275056101e-05 
-0.005303429513814994 
0 
-0.001106539102652663 
-0.004199577277739237 
0 
0 
0 
-0.003062664815085825 
0 
-0.009524863683203997 
0 
-0.002250142057008762 
-0.009249062010976266 
0 
-0.00165804209185412 
0.01090158264526835 
0.003804030378456941 
0 
-0.0005178363548566644 
-0.00231408092558582 
0 
0.001381207234563969 
-0.0002037017298374664 
0 
0.003248454005125428 
0 
0 
-0.002282964840512454 
0 
-0.0008417923265711176 
0 
-0.00312135724628182 
-0.001078220031457418 
0 
-0.0009345762831787854 
-0.001070999555501431 
-0.0003003628983793121 
0 
0 
0 
0 
0 
-0.006098828674911908 
-0.001794799638728242 
0 
0 
0.0005097511573970078 
0.00152919910347488 
-0.005601016750500096 
0.00182655788947488 
0 
-0.003526878116339333 
0 
0 
0.002336411177566975 
0 
0 
-0.0007987012657316074 
-0.001015392264913917 
0.001997378770951986 
0 
0 
0 
0.0002255610740239877 
0 
0 
-0.004722560910903861 
0 
0 
0 
0 
-0.003629891226583192 
2.483048571198392e-05 
0 
-0.009524863683203997 
0 
0 
0.01380097476360807 
0 
-0.001601203664622041 
0 
0 
-0.002309251434713143 
0.001073068684657511 
0 
0.001146457728509777 
-0.00126426072907136 
-0.002745870017588322 
0 
0.01511704067849479 
0 
0 
0 
-0.001962021922259989 
-0.000454831961181393 
0.002641461994172738 
0.001268630635448371 
0.01572394483530293 
-0.009524863683203997 
6.823769705235818e-05 
0 
0 
0 
0 
0 
-0.007488821968978349 
-0.005033055878634306 
0.0009969498838427748 
0.001146457728509777 
0 
-0.002222601050430725 
-0.00090775161058205 
0 
-0.004271273356973131 
0 
-0.003779888771986959 
0.001699335222929298 
0 
0.001154741195949512 
-0.001316537620588272 
0 
0 
0 
0 
-0.00231408092558582 
-0.006402413685488662 
0.001472288599014702 
-0.009649822630459857 
0 
0 
0 
0 
0 
-0.004654294109664827 
-0.00126426072907136 
-0.0005525213019060643 
0 
-0.004889734673694327 
0.009148944240711828 
0 
-0.002664069824919597 
0 
-0.009524863683203997 
-0.0005714896808865064 
0 
0.001772300607599855 
0.0001506808638399961 
0 
-0.003735898715448756 
-0.004937470887483435 
-0.001078220031457418 
0 
-0.001078220031457418 
0 
0.001140933288758753 
0 
-0.005329610883605625 
-0.001046342926437424 
0 
0.001146457728509777 
0 
-0.0007987012657316074 
0 
0 
0 
0 
-0.01534620472286552 
0.0004666672870944452 
-0.002908887982238532 
-0.0006356833010813982 
-0.001144666352966281 
-0.002310603655508783 
0 
0 
0.009796606379499469 
-0.003565592402439676 
0.0001159915241307097 
-0.00197824946207639 
0 
-0.0005525213019060643 
0 
-0.001078220031457418 
-0.00231408092558582 
0 
0 
-0.003873907666369734 
-0.004620785425000874 
0.01041920913780938 
0 
0.00296431279052495 
0 
0 
0.001217869319217476 
0 
0 
-0.004917038267527676 
0 
0 
0 
0 
0 
-0.002949764226667218 
-0.001015392264913917 
0 
0 
0 
0 
0 
0 
0.002749696806484947 
9.823574359655961e-05 
0 
-0.01144685092728535 
-0.0005714462216458165 
0 
-0.0005178363548566644 
0 
-0.004889734673694327 
-0.0008838018908025704 
-0.003731828332318544 
-0.00231408092558582 
0 
-0.00231408092558582 
-0.004856221365791341 
0 
0.001504517803477366 
-0.0027333396743102 
0.0007585718437987318 
0 
0.0007745248328020035 
-0.0004092609244402098 
-0.001707679528022754 
0.001300840766242729 
-0.00231408092558582 
-0.002309251434713143 
0 
0 
-0.01006562071665995 
0 
-0.00236321898055945 
0 
0.002144449688261637 
0.009148944240711828 
0 
0.008004277887745548 
0 
-0.001601203664622041 
-0.0005525213019060643 
0 
0 
0 
-0.002081134910968495 
0 
0 
0.0007889220138994322 
-0.00231408092558582 
-0.0008212404171381425 
0 
0.0005167501379309354 
-0.001601203664622041 
0 
0 
0 
-0.00126426072907136 
-0.000515793279440846 
-0.001552430994488899 
-0.0005714896808865064 
-0.002346832413479816 
0 
0 
-0.003735898715448756 
0.0007548938330289138 
0.000680100160965104 
0 
0 
0 
0 
-0.0004469896857439331 
0.001301509689331126 
0.0009381396724993039 
0 
0 
-0.0005798220603967011 
-0.001078220031457418 
0 
-0.00121205561335491 
0 
0 
0 
0.0001636148396973002 
0 
-0.001078220031457418 
0 
0 
0 
0.001217869319217476 
0.00864842422940644 
0 
-0.001046342926437424 
0 
0.002591467430622453 
0.001205127951466302 
0.009005915004172043 
0 
0 
0 
0.002067520478114465 
0.0001001148020723524 
-0.0009890829848369109 
2.483048571198392e-05 
0 
0 
0.0003796610894592224 
0 
0.001042109986816092 
-0.002397565494075095 
0 
-0.01149385258628791 
-0.000635683301081398 
-0.01255394180782857 
0 
0 
-9.813432490626492e-05 
-0.001988702711036873 
0.001101645627527105 
-0.005544050045913533 
-0.004889734673694327 
0 
-0.00231408092558582 
-0.01023354394268045 
0 
0 
0 
-0.0008838018908025704 
-0.003754477342831017 
-0.006757674542989638 
0.001381207234563969 
0 
-0.003119434238977004 
0.001897512654553198 
-0.0008827280867401239 
0 
0 
0.0009969498838427748 
5.960277013510124e-05 
0 
0 
-0.01285984795700615 
0 
-0.003438881116582302 
0 
-0.003183377413542693 
-0.01006562071665995 
-0.0005733814527536152 
0 
-0.004204505237185815 
0.003057319722060974 
-0.01006562071665995 
0 
0 
0 
0.001146457728509777 
0.001602069846488642 
0 
-0.0005178363548566644 
0 
-0.001071588829408101 
-0.002664069824919597 
0 
0 
-0.0001589796868646679 
0 
0.0004666672870944452 
0 
-0.004889734673694327 
0 
0 
0.001300840766242729 
0.001709595815541398 
0.0006064013975630657 
0 
-0.004889734673694327 
0 
0.002231135317811765 
0 
0 
-0.003183377413542693 
0 
-0.00144766747219571 
0 
0 
0 
0.001146457728509777 
0.00953540724700681 
0 
0 
-0.003418142620206835 
0 
0 
-0.00211392598970801 
0 
0.007416665286912365 
0 
-0.01255394180782857 
0 
0 
0.001938679590271127 
0 
0 
0 
0 
0.0003746301837613368 
0 
0 
0 
0.002181909819226123 
-0.00215046608588852 
0.0002080278699433421 
-0.0008212404171381425 
0.003840097286634956 
-0.007447070436116126 
0.01655444868995299 
0 
0 
0 
-0.001716156033852787 
0 
-0.01085495058192616 
0.001146457728509777 
0 
0 
0 
0.0007932077162951549 
0 
0 
-0.001906926920260224 
0 
0 
0 
-0.00231408092558582 
-0.0006356833010813982 
0.0009401830439146052 
0 
0 
-0.003753789859781978 
-0.001601203664622041 
0.001758862071279241 
-0.0005525213019060643 
-0.001027308763743935 
-0.002146233470062933 
-0.001847413638491375 
-0.005404323032808124 
-0.001535902716790041 
0 
-0.0004447573138440738 
0 
0 
0 
0.009329883102066212 
0 
-0.009524863683203997 
-0.001144666352966281 
0 
0 
-0.003304649992088211 
-0.002025910623204249 
-0.0007987012657316074 
0 
0 
0 
0.01942512414198144 
0 
5.859882170791749e-05 
0.00110434556032659 
0 
0 
0.0003658191820500801 
-0.002025910623204249 
0 
0.0007513162180656063 
0 
0.0006653480173114124 
0 
0 
0 
0 
0 
-0.0005400563309467117 
0 
0 
0 
0.000982075143873697 
-0.001193696616466201 
0 
0 
0 
0 
-0.002134732670019191 
-0.001899679159696873 
0 
-0.00126426072907136 
0 
-0.00126426072907136 
-0.001879584777734988 
-0.01155333192697284 
0.009072341016286616 
0 
-0.001046342926437424 
-0.009524863683203997 
0 
-0.00312135724628182 
0 
0 
0 
0.0005939364266037123 
0 
0 
0.01639165974420917 
0.001164154757469124 
0 
0.001932978847153286 
-0.004673066683666366 
0 
0.004905842120427468 
-0.0005464960208326811 
-0.001097658415253365 
-0.00126426072907136 
-0.000252692054461072 
0 
0.002182206506182243 
0 
0.0002087299908422016 
0 
0 
0 
0 
0 
0 
0 
0.01119373397061138 
-0.008777046596914423 
0.0003223624308980059 
0.0006923847030868957 
0.0004144017658889474 
-0.0005621781758570735 
0.002212659482177503 
-0.00126426072907136 
0 
0 
0.002884529267510286 
-0.0007271748197846908 
0 
0 
-0.001929278635373393 
-0.004328043766508973 
-0.001660866769362389 
0 
0 
0 
-0.001276668178925299 
0 
-0.003424716060028292 
0 
-0.0005192140408429579 
0 
0.002773115942759752 
-0.001596056386314082 
-0.001601203664622041 
0.01711104321639562 
0 
-0.004575778188599562 
0 
0 
0 
0 
0.00172789762222353 
-0.005055945984069752 
-0.001276963283871577 
0 
-0.0002001609709374785 
0.001300840766242729 
-0.004889734673694327 
0 
0 
-0.0008838018908025704 
0 
-0.009524863683203997 
-0.001788814816783458 
0 
0 
0 
0 
0 
-0.001144666352966281 
0.0004144017658889474 
-0.0005525213019060643 
0.001060089221540656 
0 
-0.0001630179646502096 
-0.0002531352101422694 
0 
-0.0005714896808865064 
-0.001974840548354919 
0.001359439587950647 
0 
0 
-0.0005525213019060643 
-0.001046342926437424 
0 
0 
0 
0 
0 
-0.001687175121088961 
0 
0 
0 
0.002857619389541486 
0 
-0.001097658415253365 
0.0002195915639267858 
-0.002008181981242906 
-0.0005178363548566644 
0.002464995523711853 
-0.002099109460189879 
0 
0 
0 
0.002007869758131527 
0 
-0.002698754771968997 
-0.001144666352966281 
0 
0 
0.0007889220138994322 
0.01942512414198144 
-0.001070999555501431 
-0.001097658415253365 
-0.001601203664622041 
0 
-0.0008838018908025704 
0 
0.0007745248328020035 
0 
0 
-0.003611306349100812 
0.001484507225298653 
0 
0 
-0.0005178363548566644 
-0.001278841233724035 
-0.002552079357571108 
0.000836605297933304 
0 
0 
-0.004889734673694327 
-0.0006356833010813982 
-0.001078220031457418 
-0.00312135724628182 
-0.0005525213019060643 
0 
0 
0 
-0.003255017701169295 
0 
0.01942512414198144 
0 
0 
-0.001078220031457418 
-0.00312135724628182 
0 
-0.002124562957894842 
-0.0005714896808865064 
0 
0.0008440184348970725 
-0.01154651055125476 
0 
0 
0.001217869319217476 
0.0001001148020723524 
0.002549911024636003 
0 
0 
0.001602069846488642 
-0.001233210342147848 
0 
0 
0 
0 
-0.004167700172719244 
-0.003735898715448756 
0 
0.001300840766242729 
-0.001845044192169032 
-0.002188928587854458 
0 
-0.001046342926437424 
0 
-0.004899143695797296 
0 
-0.0006356833010813982 
0 
0.001876028364604031 
0 
0 
-0.0007451831985444081 
-0.000671832344948773 
0.001929514451721171 
0 
0 
0 
0.0005075679196345912 
-0.005544050045913533 
0 
0.0004666672870944452 
-0.00264067127678103 
0 
-0.003360423852023244 
0 
-0.001144666352966281 
-0.004232533462833388 
0 
0.003170164377984476 
0 
-0.0005798220603967011 
0 
0 
0.001653436642792647 
0.007002710770648894 
0 
0 
0 
0.001060089221540656 
-0.003062430217794982 
0.0001636148396973002 
0 
0 
0.001300840766242729 
-0.002146233470062933 
-0.001445142237526244 
0 
0 
-0.002740722739280363 
0 
0 
0.001146457728509777 
0 
0.002780259643432806 
-0.00126426072907136 
-0.002028468243768851 
0.0007745248328020035 
-0.0002041715075307043 
0 
0.01285326938327445 
0 
-0.001671010304587716 
0 
0 
0.002591467430622453 
-0.007242848417473698 
0.002623630197298254 
0.0003664084559567494 
0 
0 
-0.0006356833010813982 
0 
0 
-0.004535220216338962 
0 
0 
0 
0 
0 
0 
0 
0 
-0.01255394180782857 
0 
0.0005939364266037123 
0.001101645627527105 
0.008051285825458462 
0 
0.0075287834219039 
0.002113577806454605 
0 
-0.0008838018908025704 
0.01942512414198144 
0 
-0.008371721371006419 
0 
0 
-0.002624209910191275 
-0.005789285265304548 
0 
0 
0.01017223155991212 
-0.002794038544775094 
0 
0 
0 
-0.0006356833010813982 
0 
1.65690484429232e-07 
-0.001916229294815517 
0 
0.001472288599014702 
0 
-0.003136528351345127 
0 
-0.005468857641015798 
0 
0 
0 
0.0006442708711704627 
0 
0 
0.001164154757469124 
0 
0 
0.008922806055893609 
0 
0.000169943913508324 
-0.001882536647299963 
-0.0005525213019060643 
0 
-0.001070999555501431 
0.01027617990126959 
-0.002255482103877902 
0 
-0.0002568294724975506 
-0.00455820007765467 
0.0007932077162951549 
0 
-0.004889734673694327 
0 
-0.001015392264913917 
0 
-0.002698156805244335 
-0.002146233470062933 
0 
-0.002146233470062933 
0.00382827606552213 
0.001699335222929298 
0 
0 
6.04615985000214e-05 
-0.004396397522848581 
0 
0.002549911024636003 
0 
0 
0 
0 
0 
-0.004179296152899446 
-0.00312135724628182 
0 
0.001731582088139641 
0 
-0.004457523812848609 
-0.00231408092558582 
0 
0.0007932077162951549 
0 
0 
-0.00312135724628182 
0 
0 
-0.003653152809756507 
0 
0.002590652434966528 
-0.001437408011458181 
-0.001793759298013691 
-0.001437408011458181 
0.0007745248328020035 
0 
-4.98916275056101e-05 
-0.009152973539069444 
0 
0 
-0.003552241175712903 
0 
0 
-0.0005525213019060643 
0.002166216384496319 
-0.0006805237443873441 
-0.00312135724628182 
0.0002708392365248942 
0 
0 
0.001205127951466302 
0 
0.001311633647886738 
-0.0005525213019060643 
-0.002084413873903911 
0 
0 
-0.0008237221916521133 
0.003198353420795927 
-0.001089326035743171 
0 
-0.0006654989284183102 
0 
5.740636265423534e-05 
0 
0 
0.002623630197298254 
0.0007745248328020035 
0.000680100160965104 
-0.003360423852023244 
-0.001455603850877634 
0.0004666672870944452 
0 
0 
-0.002161849993423693 
-0.002753025783020254 
0 
-0.003175043649726523 
0 
0 
-0.002050802322426348 
0 
0 
0.004217864487299978 
0 
0 
-0.001046342926437424 
0 
-0.001078220031457418 
-0.001601203664622041 
0 
-0.0002732532539890572 
-0.0004092609244402098 
0 
0.0004144017658889474 
-0.002146233470062933 
-0.00144766747219571 
-0.001103684328498986 
-0.004171112690660277 
0.01027617990126959 
-0.001716156033852787 
0 
-0.001144666352966281 
-0.005013199691175129 
0 
0 
-0.004841892408488302 
0.01942512414198144 
-0.005230009115970392 
-0.003038611676080222 
0 
0 
-0.001437408011458181 
-0.003183377413542693 
0 
0 
-0.006070899068535745 
-0.00105420592219622 
0.0002360110456661441 
0 
0 
0 
-0.003859758436865358 
0.001472288599014702 
0 
0 
0 
0 
0.001258884137700197 
-0.001710323309902916 
0 
0 
0.001300840766242729 
-0.01006562071665995 
0 
0.001217869319217476 
-0.001097658415253365 
-0.0003662427654723202 
0 
-0.0007244419819655131 
-0.0006356833010813982 
-0.01295119132313228 
0.003667732037922517 
0 
0.001653436642792648 
0 
0 
-0.0004933498446931026 
0 
-0.003192576396500357 
0 
-0.001989929313364245 
-0.00312135724628182 
0.001856230259052097 
0.001472288599014702 
0 
0 
-0.003907819395508204 
0 
-0.0003877919752267311 
-0.00171108881452799 
0 
0 
-1.684727186113125e-05 
0 
0.002890941196289133 
0 
0 
0.001547334407877535 
-0.00546191499950578 
0.000680100160965104 
0.009204591071861492 
-0.002723341850026029 
-0.0006356833010813982 
0 
-0.004889734673694327 
0 
0 
-0.0009344704195563039 
-0.00142674389456828 
-0.0005178363548566644 
0.005048628668945197 
-0.001930144817239995 
0.001164154757469124 
0 
0.0007932077162951549 
0.002212659482177503 
-0.005761809338653005 
0.002212659482177503 
0 
0.002212659482177503 
-0.005271448910447883 
0.001185026511448443 
0 
-0.002612004557879215 
0.008206549655631877 
0.0007745248328020035 
-0.005406871935475762 
0 
0 
0 
-0.01007738498511006 
-0.004722560910903861 
0 
0 
0.01338186981234903 
0 
-0.0003981198704923145 
-0.001078220031457418 
-0.002681790511637106 
0.007962098975683769 
-0.01255394180782857 
0 
0 
-0.000985881327937403 
-0.002390593145013811 
0 
0.0006923847030868957 
-0.003548026803656526 
0.001887618747048265 
0.0002346144955732716 
-0.002723341850026029 
-0.007745637158885992 
0 
-0.00231408092558582 
0 
0 
-0.01402103881644602 
0.0003658191820500801 
-0.0004547168319255928 
-0.009036142353564171 
0 
0 
0 
-0.0001630179646502096 
0 
0.0001509145981260333 
0 
0.003206544712812647 
0.001075668953626168 
-0.0007987012657316074 
0.0009730983022307653 
-0.000717997325794143 
-0.001437408011458181 
0 
0 
-0.004689980448123845 
0 
0 
0 
-4.98916275056101e-05 
0 
0 
0.001164154757469124 
0 
0.0004144017658889474 
-0.001070999555501431 
0.008126371040404076 
0.001185026511448443 
0 
0 
-0.001081949312132674 
0.002667433321426263 
0.001472288599014702 
0 
0 
-0.0009890829848369109 
0 
-0.003907819395508204 
0 
-0.006586558701904248 
0 
0 
0 
-0.0004324925377351991 
0 
-0.001601203664622041 
0.0006240984265224116 
-0.002025910623204249 
0 
0 
0 
0 
-0.0005525213019060643 
-0.0014225010837833 
0 
-0.005230009115970392 
0 
0.001931030517887675 
0.001164154757469124 
0 
0 
0.01727889067191851 
0 
-0.002952033554198629 
0 
0 
0 
0.001205127951466302 
0.0004838179040439898 
-0.001437408011458181 
-0.001988702711036873 
-0.0005525213019060643 
0 
0.0002795476506114598 
0 
0 
-0.003996107153104641 
0 
0 
0.0007513162180656063 
0.0004220157465442636 
-0.00126426072907136 
0 
0 
0.001314767747617651 
0 
-0.004787631006403895 
-0.008308828512331336 
0.0004666672870944452 
0.0008314168959003461 
0 
0 
-0.002647546591059466 
0.002957575243253028 
-0.005470985095831699 
0 
0 
0.0007745248328020035 
0.0005618791477250947 
-0.0008838018908025704 
0.0007889220138994322 
0 
0 
-0.001601203664622041 
0.0004838179040439898 
0 
0 
-0.003562059684483864 
0.009005915004172043 
0 
-0.0005525213019060643 
0 
0 
0 
0 
0 
0 
-0.008073112087237017 
0 
0 
0 
0 
0 
-0.001078220031457418 
0.001101645627527105 
0 
-0.002503277252577589 
0.004857940055327677 
0 
0 
0.005268598196826933 
0 
0 
0.01665416557907543 
0 
0 
-0.004535220216338962 
-0.0002041715075307043 
-0.004115209840892321 
0.0008810690529833927 
0 
-0.0005798220603967011 
0 
0 
0.001672022507031452 
0.001767508053337175 
-0.00231408092558582 
-0.00231408092558582 
-0.00231408092558582 
0 
0.001217869319217476 
-0.004889734673694327 
-4.98916275056101e-05 
0 
0.0002031823509893638 
0 
-0.004073538442495982 
0.001241899758429102 
-0.0005901186073767441 
-0.001753861559924097 
-0.003045651884226264 
-0.005052485748474484 
0 
-0.00329541507621503 
0 
-4.98916275056101e-05 
-0.0007987012657316074 
0 
0 
-0.0004092609244402098 
0.003134599963968662 
0 
0.0002182188998966411 
0 
0 
-0.001601203664622041 
0.001300840766242729 
0 
0 
-0.004913416084788911 
0 
0 
0 
0 
-0.001078220031457418 
0.007140658844591737 
0 
0 
0.001786496443931447 
-0.0005525213019060644 
0.001576756942493776 
-0.009524863683203997 
-0.003821000265279395 
0 
-0.007617073954618361 
-0.005544050045913533 
0 
0 
0 
0.0005273561540651717 
-0.004722560910903861 
-0.0009467438171273322 
0 
-0.0003766878429567742 
0 
-0.001046342926437424 
-0.0009617822263462741 
0 
0.001217869319217476 
-0.0005798220603967011 
-0.0005714896808865064 
-0.003619444044400355 
0 
-0.001046342926437424 
-0.004494215526957857 
-0.001432498908067471 
0 
0 
0 
-0.00231408092558582 
-0.0005714795620484557 
0 
-0.003030035360865503 
0 
0 
0.0007745248328020035 
-0.002363972553091429 
-0.001918138598431715 
-0.001097658415253365 
0.007404711339550007 
0 
0.001885228112431406 
0 
0.01419511502601103 
-0.004437369117587858 
-0.004274775844121483 
-0.002025910623204249 
-0.004248756406585094 
0.000680100160965104 
-0.0004092609244402098 
0 
0 
0 
0 
-0.00231408092558582 
-0.01130404331232073 
-0.0008838018908025704 
-0.01412059600868515 
-0.0005525213019060643 
0 
0 
-0.002084413873903911 
-0.0004092609244402098 
0 
-0.001046342926437424 
-0.001345810462239145 
0 
0 
-0.0005798220603967011 
0.001118688043248573 
0.0004666672870944452 
-0.001588694147757447 
0 
0 
0.01862642287624984 
-0.005544050045913533 
0.002265217173006959 
0 
0 
0 
-0.001078220031457418 
0 
-0.0001451503079532503 
0 
0.0004797086215489386 
0 
0.000680100160965104 
0 
0 
0.004234855293255894 
-0.0006356833010813982 
0.00113782280159252 
0 
0.01021467789098756 
0.008568907770780091 
-0.0005714896808865064 
-0.0014225010837833 
0 
0.001856230259052097 
-0.00312135724628182 
-0.004314766626071054 
0 
-0.001078220031457418 
0.001472288599014702 
-0.001753861559924097 
0.004109170770761514 
0.0002139752326333733 
0.0009950298296098616 
0 
0 
0 
0.002749696806484947 
-0.002332211735502583 
-0.0006356833010813982 
-0.003692152794615206 
0.001205127951466302 
0 
-0.0005178363548566644 
0.0001636148396973002 
-0.01006562071665995 
-0.0001083271470162266 
-4.98916275056101e-05 
-0.0002989930136881098 
0.002590652434966528 
-0.0005798220603967011 
0.001118688043248573 
0.01031309899818095 
-0.003857322284590924 
-0.002387206600970174 
0 
0.001472288599014702 
-0.003038611676080222 
-0.002874616293337605 
0 
0.00343539273216846 
0.001672022507031452 
0.001300840766242729 
0 
-0.0001589796868646679 
0 
0 
0 
0 
0 
-0.0005178363548566644 
-0.00107475985285852 
0 
-0.000439941528874359 
0.01572394483530293 
0 
0 
0 
0.001526652905191772 
0.001520594378217976 
0 
-0.003183377413542693 
-0.0004092609244402098 
0 
0 
-0.001046342926437424 
0 
0 
0 
0.01711104321639562 
0.003417006591033282 
0 
0 
-0.00231408092558582 
0 
-0.00326070583186954 
-0.0005714896808865064 
-0.003882116244448328 
0 
-0.003146906069289667 
0.000654407660088039 
0 
0 
-0.004889734673694327 
0 
0.001980940927207834 
0 
0 
-0.004167700172719244 
0 
0 
-0.001626164986834125 
-0.0002568294724975506 
0 
0 
-0.003874434344948959 
0.007774079875169262 
0.001164154757469124 
0 
0 
0.004367680520149284 
0 
0.0007513162180656063 
-0.0003834177663272035 
-0.001078220031457418 
-0.0007244419819655131 
0.0002393065498027088 
0.002884529267510286 
0 
0.009148266464716967 
0 
0.0007889220138994322 
0 
-0.001015392264913917 
-0.009524863683203997 
-0.001437408011458181 
0 
-0.0005400563309467117 
-0.01249534298612065 
-0.009524863683203997 
0 
0 
-0.003183377413542693 
0.0001001148020723524 
-0.0005798220603967011 
0 
0 
-0.004863949884948428 
-0.000118422069672736 
-0.0007675673112306059 
0 
-0.002817558231492613 
0 
0.009148944240711828 
0 
-0.0001630179646502096 
0.01818388614587382 
0 
-0.0005525213019060643 
0 
0 
0 
0 
0.009148944240711828 
-0.003038611676080222 
-0.006476422470827959 
0 
0 
0.0004666672870944452 
0.01291385114380514 
0 
-0.0005525213019060643 
-0.0007155392665562736 
0 
0 
-0.001233210342147848 
-0.003045651884226264 
-0.001793759298013691 
0.007774079875169262 
0 
0 
0.0003796610894592224 
0 
-0.001046342926437424 
4.879931325641113e-05 
0.001007431256573809 
0 
0 
-0.002900388138934396 
0.002902910612731371 
0 
0 
0 
0 
-0.005077382758819088 
0 
0 
-0.0008750376804680548 
0 
0 
-0.0002989930136881098 
-0.002146233470062933 
0 
-0.0008839901104326564 
0 
-0.002146233470062933 
0 
0 
0 
0.01041920913780938 
0 
0.001477894505373207 
0.005813338607671685 
0 
0 
0 
-0.01036898304404928 
9.256592806102285e-05 
0 
0 
0.0004551676792269999 
-0.0004092609244402098 
0 
0 
0 
0 
0.001101645627527105 
-0.001078220031457418 
0 
0 
0.0007932077162951549 
-0.01237970164224578 
0 
0 
0 
-0.00126426072907136 
0.001075668953626168 
0 
-0.0003580335260087635 
-0.0002212815351924508 
0 
0 
-0.0008838018908025704 
0 
0.0005273561540651717 
0 
-0.0007931915410889809 
-0.002723341850026029 
0 
0 
-0.009524863683203997 
0 
-0.00211392598970801 
0.003878569457081885 
-0.002025910623204249 
-0.0004150698272094907 
0 
0 
0 
0 
0 
-0.0008888185112236674 
-0.002215665908467712 
0.001044011293745179 
0.009148944240711828 
-0.002474433748977572 
0 
0.001164154757469124 
0 
0 
-0.001793759298013691 
0 
0 
-0.008625300069912361 
0 
0 
-0.001552430994488899 
-0.0005400563309467117 
-0.004689980448123845 
0.002094048482537885 
0.001397917825266588 
0 
0.000169943913508324 
0.0003796610894592224 
0 
0.0001513167349352417 
-0.002312289550042324 
0 
0 
0 
0 
0.0002710856590427678 
-0.001046342926437424 
-0.002861714623591685 
-0.0005525213019060643 
0 
0.01758104135251339 
0 
-0.01255394180782857 
0 
0.009148944240711828 
-0.0007244419819655131 
-0.00693238991745645 
0.002906700884845527 
-0.005150649611240215 
0 
0 
-0.004880565068415038 
0 
0 
-0.0008838018908025704 
-0.009524863683203997 
0 
0 
-0.006104466156045337 
0.001300840766242729 
-0.001988702711036873 
0 
0 
0.01606470028995819 
-0.0004469896857439331 
-0.002882779099357 
0.0003658191820500801 
0.0007617851718308997 
0 
0.0007548938330289138 
0 
-0.0007244419819655131 
0.001146457728509777 
0 
-0.0007653093426732292 
0 
0 
0.002067520478114465 
-0.004736520119521886 
0 
0 
-0.0001687773760098106 
0 
-0.001768200459525234 
0 
0 
-0.003873907666369734 
-0.0005525213019060643 
0 
0 
0 
0 
0 
0 
0 
0.002065170762734201 
-0.001601203664622041 
0.00110434556032659 
0 
0 
0.004732129855356064 
0 
-0.003183377413542693 
0 
-0.001078220031457418 
-0.001078220031457418 
-0.001437408011458181 
-0.0002212815351924508 
0 
0 
0 
0 
-0.001078220031457418 
0 
0.004660088725524702 
0 
-0.002839789288933336 
0 
-0.0007244419819655131 
5.859882170791749e-05 
0 
0 
0 
-0.0006356833010813982 
0 
-0.005297244100528357 
0.01027617990126959 
0 
-0.0001797126381424828 
0 
0 
0.0008440184348970725 
0 
-0.0004592375331487469 
-0.001432498908067471 
-0.001232702906909094 
-0.004179296152899446 
0 
0 
0 
0 
0 
0 
7.081884240941084e-05 
-0.00231408092558582 
-0.003405803971454212 
0 
0.0001247031698336853 
0.001146457728509777 
-0.005351841941046345 
0 
0.001600874627359977 
0.0003873590075408916 
0 
0.0003664084559567494 
0 
0 
0.001171046096271109 
-0.0002568294724975506 
-0.002084413873903911 
0 
0 
0 
-0.0001630179646502096 
-0.004171112690660277 
-0.0007959400863383185 
0 
0 
-0.004708778334559491 
5.859882170791749e-05 
-0.01189875154143841 
0 
-0.001097658415253365 
0 
-0.0004092609244402098 
-0.001046342926437424 
0 
0 
-2.710505431213761e-20 
0 
-0.01613941243916069 
-0.001046342926437424 
0.001489821803095347 
0 
0 
-0.0005192140408429579 
0.000848823924217255 
0 
-0.01828564590922362 
-0.0006356833010813982 
0.0002478073511902455 
0 
0 
0 
0 
-0.0007910896088457216 
0 
-0.0008838018908025704 
0 
0 
-0.001046342926437424 
0 
-0.005303429513814994 
-0.002146233470062933 
0.001472288599014702 
-0.001601203664622041 
0 
-0.009973054788598928 
-0.0006356833010813982 
0 
-0.002745870017588322 
0 
0 
0 
0.001300840766242729 
0 
0.001838842431596672 
0 
0 
-0.00231408092558582 
0.005390532861025972 
0 
0.003840097286634956 
-0.0005525213019060644 
0 
0.000680100160965104 
0 
-0.006173839362451175 
0 
-0.004199577277739237 
0 
0 
0.001311633647886738 
-0.0009281437118029797 
-0.0007987012657316074 
-0.002146233470062933 
-0.0003003628983793121 
-0.001144666352966281 
0 
0 
0 
0 
0 
-0.001688728398993316 
0 
0 
0.001300840766242729 
-0.007293501339549003 
-0.008821788242996462 
-0.00165804209185412 
0 
0 
0 
0.002810814914722788 
-0.003183377413542693 
-0.009524863683203997 
-0.0005714896808865064 
0.001164154757469124 
-0.001899679159696873 
0 
0.01306646711807135 
0 
0 
0 
0 
-0.006402413685488662 
-0.002255482103877902 
0 
-0.01255394180782857 
-0.001630741333363483 
-0.003653157697580626 
-0.0003542609863727136 
-0.009575445331129412 
0 
5.859882170791749e-05 
0 
-0.005052485748474484 
-0.001962021922259989 
0 
0 
0 
0 
0 
0 
0.0002220035308959393 
0.006564718984081634 
0.002124819409080482 
0 
0.000458833149532461 
-0.01613941243916069 
0.001472288599014702 
-0.002025910623204249 
0.009148944240711828 
-0.0005525213019060643 
0.003604894194798297 
0.0001587850250288777 
0 
-0.001498554469139077 
-0.001046342926437424 
-0.004612605085166344 
-0.001437408011458181 
0 
-0.00599791881584733 
0.0005939364266037123 
-0.01255394180782857 
0.001342860239776542 
0 
0.01027617990126959 
0 
-0.00329541507621503 
-0.0008838018908025705 
0 
-0.00229006696889161 
0 
-0.0007451831985444081 
9.256592806102285e-05 
-0.001445142237526244 
-0.0027333396743102 
-0.003735898715448756 
0 
0 
-0.002146233470062933 
-0.00231408092558582 
-0.002146233470062933 
0.005120883256967411 
0 
0.001300840766242729 
0.001472288599014702 
0 
0 
-0.0001630179646502096 
0.01288132287641549 
-0.002267388745748159 
-0.001437408011458181 
-0.00231408092558582 
0.002123867859505496 
0.001171046096271109 
0 
0.001300840766242729 
0 
-0.0004592375331487469 
-0.0003917975196134086 
-0.001046342926437424 
0 
-0.01028608225525031 
0 
0 
-0.01062644785892817 
0 
0 
-0.001003112933845278 
0 
0 
-0.002146233470062933 
0 
0 
0 
-0.00126426072907136 
2.710505431213761e-20 
0 
-0.003183377413542693 
0 
0 
0.001146457728509777 
-0.009524863683203997 
-0.0009281437118029797 
0.001060089221540656 
-0.0002568294724975506 
-0.004209202425117086 
-0.003087117723802105 
0 
0 
0.00374565335288368 
0 
0 
0 
0 
0.001164154757469124 
0 
0 
0 
0 
0 
-0.002723341850026029 
-0.004889734673694327 
0 
0 
0 
-0.005099857019847746 
0.003417006591033282 
0 
0.001897512654553198 
-0.0006356833010813982 
-0.005997601187470622 
0 
0 
0 
0 
-0.01613941243916069 
0 
-0.009524863683203997 
0 
-0.002949764226667218 
0.001472288599014702 
0 
-0.00214806261987393 
0.001731674907639112 
0.002094048482537885 
-0.001288437162000964 
0.001154741195949512 
-0.01062172949482545 
0 
-0.001454420942317743 
0 
-0.001601203664622041 
-0.002563847193585517 
0 
0 
0 
-0.0007987012657316074 
0.001219779305693791 
-0.001738731965946967 
0 
9.256592806102285e-05 
0 
0.0008005330040432217 
0.0007745248328020035 
-0.00354457128331993 
0.001300840766242729 
-0.00107384751055687 
0 
0 
0 
-0.005253981203078357 
-0.003011138788623418 
-0.003857322284590924 
0 
0.000680100160965104 
-0.003600654412380675 
0 
-0.0005798220603967011 
0 
0 
0 
0.009072341016286616 
0 
0 
0 
-0.0009211035036569377 
-0.001097658415253365 
0.000680100160965104 
0 
-0.00267942369607946 
-7.078877488360912e-05 
0.002298918402225952 
-0.0007987012657316074 
-0.001434932537814899 
0 
0 
-0.002025910623204249 
0 
-0.003119434238977004 
-0.004889734673694327 
0 
0 
0 
0.001489821803095347 
-0.002654689959187374 
-0.006104466156045337 
0.0004666672870944452 
0 
-0.00312135724628182 
-0.009524863683203997 
0 
0.000654407660088039 
-0.001601203664622041 
-0.005707613295838738 
0 
-0.0005901186073767441 
0.0002360110456661441 
0 
0.001672022507031452 
0 
-0.000485549645560423 
0.0005273561540651717 
0 
0 
-0.001434932537814899 
0.0006442708711704627 
0 
0 
0 
0 
0.0007745248328020035 
-0.01255394180782857 
-0.009524863683203997 
-0.0001630179646502096 
-0.0009281437118029797 
0 
-0.002146233470062933 
0 
-0.0005798220603967011 
0.00434511417050853 
-0.003192576396500357 
-0.001078220031457418 
0 
0 
-0.002234721325565956 
-0.003183377413542693 
0 
0 
0 
0.001146457728509777 
-0.00137170863726093 
-0.0008838018908025704 
0 
-0.001437408011458181 
0.001047645036818541 
0.001489821803095347 
-0.003360423852023244 
0 
-0.004460314395648752 
0 
0 
-0.003360423852023244 
0.003007985767077948 
-0.002025910623204249 
0 
-0.007634717907096849 
0.0030058691965114 
-0.003030035360865503 
-0.002839168303341136 
0 
0 
0.001007431256573809 
0 
-0.002485005555424612 
0 
0.0007932077162951549 
-0.002108254266554998 
0 
0 
-0.009048612898617178 
-4.98916275056101e-05 
0.004946253591435875 
0.00110434556032659 
0 
-0.01255394180782857 
0.001277932958265191 
0.00233174177944224 
-0.004575778188599562 
-0.005544050045913533 
0 
0 
-0.001601203664622041 
0 
-0.001601203664622041 
0.001101645627527105 
-0.001916229294815517 
0 
-0.01352436799521205 
0 
-0.002831917280442484 
0 
-0.001601203664622041 
-0.0004092609244402098 
0 
-0.002309251434713143 
0.001472288599014702 
-0.0005400563309467117 
-0.002834593859373604 
0 
0 
-0.001432498908067471 
0 
0 
0 
-0.002716710126448247 
-0.001070999555501431 
0 
-0.009742466196598328 
-0.0005525213019060643 
-0.00231408092558582 
0.001456440351456431 
0.0004666672870944452 
0.001485436077413587 
-0.0004872561323356783 
0.01623254774548108 
0 
0.001405365173828545 
0.004732129855356064 
-0.0008838018908025704 
0 
-0.001548585251698856 
0 
0 
0 
0 
0 
-0.003183377413542693 
0 
-0.001078220031457418 
-0.001682026227518822 
0 
0 
0 
0 
0 
-0.001520873209290665 
0 
0.01064199908331967 
0 
0 
-0.001046342926437424 
0 
-0.0009707407243637359 
-0.005303429513814994 
-0.0002531352101422694 
0 
-0.01255394180782857 
-0.00231408092558582 
0.001897512654553198 
0 
0 
-0.0001178030005615834 
0 
-0.003119895046827747 
0 
-0.004570827550843516 
0 
-0.001930144817239995 
0 
-0.0007987012657316074 
0.0006994680427658436 
0 
-0.0006356833010813982 
0 
-0.0003003628983793121 
0 
0 
0.0004666672870944452 
-0.002718681671389103 
0.0003796610894592224 
0 
0 
0 
-0.003087117723802105 
0 
0 
0 
0 
0.002336411177566975 
0 
0.0004220157465442636 
-0.00231408092558582 
0 
-0.003438881116582302 
0 
0 
0 
-0.0102493056651695 
-0.004321280348794258 
0 
-0.002599087295284023 
-0.0004092609244402098 
0 
0.0006848605786206547 
0 
0 
-0.0005459588019620575 
0 
0 
0 
0.000458833149532461 
0 
-9.29317760509623e-05 
0 
0 
-0.001077580669685957 
-0.001437588824924741 
-0.002086299992770453 
0 
0.001489821803095347 
0 
0.01041920913780938 
-0.001731237485137234 
-0.01152174076766937 
0.002086424272920399 
0 
7.429753945698265e-06 
0 
0 
0.0007889220138994322 
0 
0.001164154757469124 
0 
0.0004666672870944452 
0.00113782280159252 
0 
0 
-0.004269325291900665 
0 
0.0001903642646957477 
0.01942512414198144 
-0.004889734673694327 
0 
0 
0 
0 
0 
-0.00231408092558582 
-0.009524863683203997 
0 
0 
0 
0 
-0.006696247679645555 
0 
0.002642084378035366 
0 
-0.003135316454899843 
0 
-0.006233005829217507 
-0.001238160250127083 
-0.005622121115036989 
0 
-0.00126426072907136 
0 
0.0001001148020723524 
0 
0 
0 
-0.002647546591059466 
0 
0.0003796610894592224 
0 
-0.004763880990813294 
0.003878569457081885 
0.001146457728509777 
0 
0.0001798265371790999 
-0.002500763868755166 
-0.002654586799205507 
0 
0 
0 
0.001140933288758753 
0 
0 
0.001327769597166424 
0 
0 
0 
0 
-0.002146233470062933 
0 
-0.004113466561709129 
-0.003542000213458124 
-0.00231408092558582 
0 
0 
0 
-0.00231408092558582 
-0.004261597445000112 
0 
-0.005052485748474484 
0 
-0.0006356833010813982 
0 
-0.001078220031457418 
-0.001617438906967951 
0.003212169823076892 
-0.001883577632355727 
0.002065170762734201 
0 
-0.003652777538456315 
0 
0 
-0.0005525213019060643 
0 
-0.001316537620588272 
0 
0.001205127951466302 
-0.0004795735217701236 
0.006605345991009837 
0 
0 
-0.007610823826073862 
-0.00312135724628182 
0 
0 
0 
-0.00231408092558582 
-1.813080991676288e-05 
-0.003183377413542693 
0.0004666672870944452 
0.0007889220138994322 
0.0008239786428377519 
0.0004144017658889474 
0 
0 
0 
0.001057053872435364 
0 
-0.00148813039294128 
0 
0 
-0.0005400563309467117 
-0.001793759298013691 
0 
0 
0.001521799564998185 
0 
0.001060089221540656 
0.01017223155991212 
-0.0008948105700006327 
0 
0 
-0.0005178363548566644 
0 
-0.01036898304404928 
-0.0006356833010813982 
0 
0.001164154757469124 
0 
-0.0004092609244402098 
-0.00126426072907136 
-0.003615869951277892 
0 
0.005205322867780192 
0 
-0.001835527881950495 
-0.001144666352966281 
-0.01255394180782857 
-0.001683118819594346 
0 
0 
0 
-0.0005178363548566644 
0 
0 
0 
0 
0.0005075679196345912 
-0.007311675483474365 
-0.001974840548354919 
0.0004666672870944452 
0 
0 
-0.0009532291839815152 
-0.002060082540338342 
-0.001601203664622041 
0.0004666672870944452 
0.01572394483530293 
0.001903322463530592 
-0.007809589866177078 
0.0006100487815646369 
0 
0 
0 
-0.004199577277739237 
-0.004261597445000112 
-0.003264746982781432 
0.003667732037922517 
0.0007802209479390276 
-0.000476175738510538 
-0.01006562071665995 
0.00401387123214596 
0.001171046096271109 
0.003330449306921774 
0.01027617990126959 
0 
0 
0 
0 
0.001897512654553198 
0 
0.0007932077162951549 
0 
0 
0 
0 
-0.001046342926437424 
-0.005113750831929532 
-0.005052485748474484 
0 
-0.001601203664622041 
-0.009524863683203997 
-0.0003265754002749506 
0 
0 
0 
0 
0.001300840766242729 
0 
0 
0.002741419673928407 
0.0007889220138994322 
-0.003062430217794982 
0 
-0.001596056386314082 
0 
0.001472288599014702 
0 
0 
-0.01006562071665995 
0 
-0.000985881327937403 
-0.0005733814527536152 
-0.001151311741283207 
0 
0 
-0.0005171165268858895 
0 
0 
0 
0 
-0.01264622092948581 
-0.00370117930667852 
0 
0 
-0.0007844404784708738 
0 
-0.004688321388424148 
0 
0 
0 
0.001300840766242729 
0 
-0.0006805237443873441 
0 
-0.0006660903969377605 
0.001489821803095347 
0.001300840766242729 
-0.005544050045913533 
-0.0004092609244402098 
-0.001316537620588272 
0 
-0.001233210342147848 
-0.00126426072907136 
0.0001275788590590397 
-0.01255394180782857 
0 
-0.009181565894322547 
0.003417006591033282 
0.001146457728509777 
0.003604894194798297 
0.01027617990126959 
0 
0 
0 
0 
0.001264119734519149 
0.00166013818027144 
-0.001601203664622041 
0 
-0.0006356833010813982 
-0.0005427891687658896 
0 
0 
-0.001046342926437424 
-2.732837819177832e-06 
0 
0 
0.0007745248328020035 
0 
-0.0009080060911766455 
-0.001353680626875541 
0 
0 
0 
0 
-0.0002531352101422694 
0 
0 
0 
0.005055500599514229 
0.001007431256573809 
0 
0 
0.009148944240711828 
-0.004688949045516942 
0 
0 
-0.00231408092558582 
0.001007431256573809 
0 
0 
-0.003183377413542693 
0 
0 
0 
0.0007707402018027053 
-0.006274284652814468 
-0.01167287275484518 
-0.0007562230317435309 
0 
0.005300458255010272 
0 
0.001489821803095347 
0 
0 
-0.0006356833010813982 
0.001472288599014702 
-0.002698156805244335 
0 
0 
-0.003526878116339333 
0 
-0.004179296152899446 
0 
0 
0 
0.0004666672870944451 
0 
-0.0009856541033963955 
-0.0007244419819655131 
0.002094048482537885 
-0.002025910623204249 
0 
-0.00119455798047189 
-0.002515628042915599 
0 
0 
0.001140933288758753 
0 
0 
0 
-0.0008838018908025704 
-0.001316537620588272 
0 
-0.002146233470062933 
-0.003895188989043363 
0.01711104321639562 
0 
0.001885228112431406 
0 
0 
0 
0.001526652905191772 
-0.0005525213019060643 
-0.0003003628983793121 
0 
0 
0.003290460775964312 
-0.001596056386314082 
-0.0053889825958894 
0 
-0.0005178363548566644 
0 
0.000680100160965104 
0 
0.001489821803095347 
-0.004615164862541841 
0 
-0.0005525213019060643 
0.005055500599514229 
0 
0.000458833149532461 
0.01412612854384688 
0.0003658191820500801 
-0.001454420942317742 
0 
-0.004274775844121483 
0 
0 
0.003891345842045103 
0 
0 
-0.001046342926437424 
0 
0 
0 
0 
0 
0 
0 
0 
0 
0 
0 
-4.98916275056101e-05 
0.001146457728509777 
0 
0 
-7.225414076210987e-05 
0.0004666672870944452 
0 
0 
-0.009110461917315045 
0 
0 
0.001164154757469124 
0 
-0.001046342926437424 
-0.001794799638728242 
-0.004620785425000874 
0 
0.0003658191820500801 
0 
-0.004722560910903861 
-0.004913416084788911 
0.007711536229253646 
0 
-0.00165967326549778 
0.001291733616528163 
0 
0.009615611527806276 
0 
0 
0 
0 
0.006103292356485568 
0 
0 
0 
0.003805032576059189 
0 
-0.0001630179646502096 
0 
-0.00126426072907136 
-0.002698156805244335 
-0.001601203664622041 
0 
0 
0 
0 
0 
0.0005252661088023626 
0.004600315785701121 
-0.004302872405151583 
0 
0.01318390669978356 
-0.00231408092558582 
0.01027617990126959 
0.0006526066495602378 
0 
0.001217869319217476 
-0.0006628831786561771 
0 
0.0008991633519844302 
0 
-0.0005798220603967011 
0 
-0.005271448910447883 
0 
0.0005661667413425089 
-0.005271448910447883 
-0.004219015661535184 
0.01942512414198144 
0 
0 
0.01097564794403543 
-0.002712740009167981 
-0.001693626539682532 
0 
-0.001601203664622041 
0 
0.001205127951466302 
0.001090244074222267 
0 
0 
-0.005020359130152675 
0 
-0.003819060714624091 
-0.006043729083640945 
0.001314767747617651 
0 
-0.01077459266284324 
-0.0004950956698211218 
-0.0008838018908025704 
0.0002803528666665532 
0 
0 
-0.0002850123151622635 
0 
0.00182655788947488 
0 
0 
0 
0.0009401830439146052 
0 
0 
-0.0004324925377351991 
-0.0005525213019060644 
-0.001511582174981945 
0 
0 
0.0003664084559567494 
-0.006581482401416866 
0 
-0.004487641455904906 
0.0004666672870944452 
0 
0 
0 
0.001472288599014702 
0 
-0.00231408092558582 
-0.001682026227518822 
-0.004377957134003125 
0.0003664084559567494 
0.0008703489311146946 
0 
0 
-0.003610012588437839 
0 
0 
0.0004144017658889474 
0 
-0.003513950391252151 
0 
0.001217869319217476 
0.006433993408184816 
-0.002196959617814309 
-0.002208285151876906 
0.002749696806484947 
-0.002146233470062933 
0.001146457728509777 
-0.001601203664622041 
0 
0 
-0.003360423852023244 
0.002086424272920399 
2.710505431213761e-20 
0 
0 
0 
0 
0 
-0.001519485191883969 
0 
-0.003213620632556972 
0 
0 
0.009148944240711828 
-0.005792263109194349 
-0.00126426072907136 
-0.00636696097078608 
0 
-0.005792263109194349 
0 
-0.001437408011458181 
0 
0 
0 
0 
7.429753945698265e-06 
0.002482679744157848 
0 
-0.0003330624511315904 
0.003604894194798297 
0 
0.0001411485118998903 
-0.004865403641061515 
0.0001636148396973002 
0.001220698370768532 
-0.001596056386314082 
-0.001930144817239995 
-0.001697187654872345 
-0.000844859867408524 
0.001300840766242729 
0 
0.001300840766242729 
0 
-0.001437408011458181 
0.0003356472395751425 
0 
-0.00231408092558582 
0 
0 
0 
0 
0 
0 
0.002283543785112433 
0 
0 
-0.001316537620588272 
-0.0005525213019060643 
-0.004889734673694327 
-0.001233210342147848 
0 
-0.003998769158697135 
0 
-0.001078220031457418 
0 
0 
0.0009381396724993039 
0 
0.009148944240711828 
-0.002759056558223238 
0 
-0.00231408092558582 
-0.001078220031457418 
0 
0 
-0.003864307843109139 
-0.001233210342147848 
-0.001598864228343488 
0 
-0.01255394180782857 
0.001140933288758753 
0.001607600575853198 
0 
0 
0 
-0.001788067761910445 
-0.001929047140182502 
0.001300840766242729 
-0.001437408011458181 
0 
-0.005780607740953477 
0 
0.0004144017658889474 
0 
0 
0.001484507225298653 
-0.0005901186073767441 
-0.0001630179646502096 
0 
0.0004144017658889474 
-0.005544050045913533 
-0.001869108334931793 
0.005548289828331153 
-0.0006274747691484213 
0 
-0.001151311741283207 
-0.005250848163623239 
0 
0 
0 
-0.004889035580619098 
-0.00226610447639607 
-0.003038611676080222 
-0.0119732880926911 
-0.00548358844741351 
-0.0001092770580005666 
0.004149778482709745 
0 
-0.002753025783020254 
0 
0 
0 
-0.00126426072907136 
0 
0 
-0.003751989287729882 
-0.01402103881644602 
-0.0003331399983779865 
0 
0 
8.661818666009092e-07 
0.003330449306921774 
0 
-0.001437408011458181 
5.859882170791749e-05 
0 
-0.003821000265279395 
0 
0 
0 
-0.002769497272849764 
-0.003038611676080222 
0 
0.0007932077162951549 
0 
0 
-0.0008838018908025704 
0 
0 
-0.001899679159696873 
-0.002720742674956996 
0.01380097476360807 
0.0004666672870944452 
-0.001493332612181357 
-0.01255394180782857 
0 
0 
-0.0009438089900795486 
0 
-0.0007987012657316074 
0 
0.001146457728509777 
0 
0 
0 
0 
0 
0.002749696806484947 
0 
0 
0 
-0.00231408092558582 
0 
-0.0008838018908025704 
-0.004456402449261371 
0 
0 
-0.002698156805244335 
0 
0 
0 
0 
-0.001097658415253365 
0 
0 
0.0007745248328020035 
0 
0.009148944240711828 
0 
0 
-0.001129389099219637 
0 
0 
0.00250137958899308 
-0.00231408092558582 
0 
0 
0.004015900549424575 
-0.005470985095831699 
0 
0 
0.0007932077162951549 
0 
0 
0.0005252661088023626 
-0.001437588824924741 
0 
9.147987515509539e-05 
0 
0.001205127951466302 
0 
-0.00231408092558582 
0.0001001148020723524 
0 
0.001007431256573809 
0.003058134717716898 
-0.005779957180812853 
-0.006267836777744255 
0 
0 
-0.001405686252212932 
-0.001346705824816737 
-0.00231408092558582 
0 
0 
-0.001078220031457418 
-0.0004524064998337119 
0 
0 
0.0001396492877600582 
-0.001437408011458181 
-0.00231408092558582 
-0.0005798220603967011 
0 
-0.003135321342723962 
-0.001012990007700183 
0 
-0.008625300069912361 
0 
0 
0 
-0.00171108881452799 
0 
-0.01345427181638162 
0.009064513825879961 
0 
0 
0.004887346795711718 
0 
-0.002006942244223806 
0.000680100160965104 
0.005721116147221037 
0.001185026511448443 
0.001897512654553198 
-0.0027333396743102 
0 
-0.004199577277739237 
0.002623630197298254 
0 
-0.01231105830767302 
0.001205127951466302 
0.0006931975734453953 
-0.003282655715036246 
0 
0 
5.859882170791749e-05 
-0.0009890829848369109 
0 
-0.00472022147462531 
-0.001943367618697888 
-0.001046342926437424 
0 
-0.005596537435201663 
-0.0005525213019060643 
0 
0 
5.008285083649047e-05 
0 
0 
-0.003819060714624091 
0 
0.001631988056357907 
-0.001437408011458181 
0.0001636148396973002 
-0.001233210342147848 
-0.004708778334559491 
5.859882170791749e-05 
-0.001437408011458181 
-0.01381820253689993 
0 
0 
0.002464995523711853 
0 
-0.001437408011458181 
-0.007634717907096849 
-0.009463014664506122 
-0.0004329161211574389 
-0.009036142353564171 
-4.344174239012975e-05 
0 
-0.003813227133775606 
0 
0.0004666672870944452 
0.001814186663430709 
-0.0009356090910352163 
0.001764848571845143 
0 
-0.001078220031457418 
0 
0.0005015478746509668 
0.0001513167349352417 
-0.00312135724628182 
0.0008098873326146728 
-0.00438561797535318 
-0.002255482103877902 
0 
0 
-0.003192576396500357 
0 
0 
0 
0 
0.0005167501379309354 
0 
0 
-0.005030488924297854 
-0.005404323032808124 
0 
0 
0 
0 
0.003006477798380139 
0 
0.001217869319217476 
0 
0.007847973552399932 
-0.0005525213019060643 
0 
-0.002866602227491884 
-0.004673066683666366 
0.0004778920850699733 
-0.00231408092558582 
0.007927694972714621 
-0.001543797301967806 
0 
-0.002025910623204249 
-0.006293824086537538 
0 
0 
-0.0008838018908025704 
0 
0 
0.0007745248328020035 
0.0003658191820500801 
0 
0 
-0.005686954405151131 
0.001101645627527105 
0.0007745248328020035 
0 
-0.0100963533640905 
-0.004035962438041937 
